,0,1,2,3,4,5,6,7,8,9,10,11,12,13,14,15,16,17,18,19,20,21,22,23,24,25,26,27,28,29,30,31,32,33,34,35,36,37,38,39
forte_family.alfred,-0.570054829120636,-0.14609701931476593,0.12562300264835358,-0.34420454502105713,0.10696964710950851,-0.3647490441799164,-0.38305896520614624,-0.030668538063764572,0.2786808907985687,0.2418997585773468,-0.08707545697689056,-0.22065725922584534,0.4756302833557129,-0.29603689908981323,-0.20197151601314545,-0.3626532256603241,-0.22811442613601685,-0.42058709263801575,-0.27909404039382935,-0.21794728934764862,0.29898303747177124,0.11700815707445145,-0.29222339391708374,-0.1449425369501114,0.24077488481998444,-0.251869797706604,0.4030749797821045,-0.5519441366195679,0.36776816844940186,-0.02416531927883625,-0.19034545123577118,0.2410302311182022,-0.37210315465927124,-0.20333312451839447,-0.005492514465004206,0.2348911166191101,-0.3787592053413391,0.28707048296928406,-0.37521618604660034,-0.16440324485301971
forte_family.alice,-0.3249138593673706,-0.3463600277900696,0.1747356802225113,-0.4635518789291382,0.11010892689228058,-0.09711293131113052,-0.1063409298658371,0.0916161760687828,0.43059879541397095,-0.06734032183885574,-0.4158383011817932,-0.4062623977661133,0.29981330037117004,-0.28315043449401855,-0.2074693888425827,-0.4165709614753723,-0.07271420955657959,-0.15670141577720642,-0.3095104992389679,0.17525120079517365,0.46460455656051636,0.11455594003200531,-0.28431782126426697,-0.11891581118106842,0.30719760060310364,-0.5029654502868652,0.1916343718767166,-0.09601717442274094,0.36504530906677246,-0.3438480496406555,0.1897505521774292,0.14664269983768463,-0.18470880389213562,-0.262950599193573,0.05533549562096596,0.18473699688911438,-0.31295642256736755,0.03528296947479248,-0.22969238460063934,-0.15588721632957458
forte_family.angela,-0.16234180331230164,-0.4322870969772339,-0.06951257586479187,-0.21258114278316498,-0.21332983672618866,-0.42960959672927856,-0.24541448056697845,0.20690888166427612,0.19919270277023315,-0.40969130396842957,-0.18721731007099152,-0.4285835921764374,0.4525347352027893,-0.25927746295928955,-0.4678376317024231,-0.20174263417720795,-0.2398882359266281,0.14472243189811707,-0.11549248546361923,-0.1515275239944458,0.46044662594795227,0.3348345458507538,0.03335564211010933,0.03461511805653572,0.4738169014453888,-0.4090944528579712,0.5165842175483704,-0.20397444069385529,0.4691510796546936,0.18256382644176483,-0.06727202236652374,-0.27360543608665466,0.14139793813228607,0.1666056215763092,-0.5468791127204895,0.2612431049346924,0.23188549280166626,0.27100688219070435,-0.020699601620435715,-0.1411847621202469
forte_family.ann,-0.24566255509853363,-0.11180216819047928,0.1746208220720291,-0.1816655993461609,0.04135527461767197,-0.38783735036849976,-0.43849626183509827,0.05493622273206711,0.2798016667366028,-0.11206955462694168,-0.2482697069644928,-0.2927367091178894,-0.06996959447860718,-0.3364568054676056,-0.33228251338005066,-0.3246207535266876,-0.2502606511116028,-0.10449711233377457,-0.3874075412750244,-0.1980387568473816,0.42055580019950867,-0.040448203682899475,-0.3149917721748352,-0.160831019282341,0.3050875961780548,-0.3459394574165344,0.296062171459198,-0.5297336578369141,0.1904420107603073,-0.4788438081741333,0.07187256962060928,0.1257215291261673,-0.09928996860980988,-0.11613087356090546,-0.0270695723593235,0.40356773138046265,-0.41226375102996826,0.34817761182785034,-0.3368861675262451,-0.2548571527004242
forte_family.art,-0.2786191999912262,-0.8533667922019958,0.33195894956588745,-0.38733211159706116,-0.05644375458359718,-0.09720899909734726,-0.044410232454538345,0.36408746242523193,0.27829569578170776,-0.03118881955742836,0.09472045302391052,-0.4882483184337616,-0.049811799079179764,0.01064982358366251,0.0010920001659542322,-0.4014904499053955,-0.22035980224609375,0.06480231881141663,0.2891780436038971,0.0844750627875328,0.45636850595474243,0.2591933608055115,-0.37991708517074585,-0.10256608575582504,0.2885556221008301,-0.5169573426246643,0.015114330686628819,-0.04571300372481346,0.4337283670902252,-0.32684460282325745,-0.07431568205356598,0.20613305270671844,0.11935581266880035,-0.3195846676826477,-0.19554881751537323,0.3246860206127167,-0.1277051419019699,0.035306867212057114,-0.18419009447097778,-0.08656997978687286
forte_family.beatrice,-0.21753816306591034,-0.12220495194196701,0.22936224937438965,-0.3368716239929199,0.011589797213673592,-0.09524055570363998,-0.2171655297279358,0.10269959270954132,0.24350665509700775,-0.08124574273824692,-0.3222118616104126,-0.4437825679779053,0.0746770054101944,-0.25947216153144836,-0.13914327323436737,-0.2183925062417984,-0.16133177280426025,-0.12330906838178635,-0.41719457507133484,-0.022324703633785248,0.45364856719970703,-0.21384575963020325,-0.3142004907131195,-0.18787100911140442,0.19334061443805695,-0.09407582134008408,0.3360231816768646,-0.0515751950442791,0.15946464240550995,-0.342914879322052,-0.18066096305847168,0.10397160798311234,-0.006340219173580408,0.1863914132118225,-0.046363797038793564,0.41549092531204224,-0.1446872502565384,-0.021596865728497505,-0.15193574130535126,-0.1662757396697998
forte_family.bob,-0.19960856437683105,-0.03742717206478119,0.2889123857021332,-0.1298564374446869,0.01920601911842823,-0.12922148406505585,-0.23442040383815765,0.359607070684433,0.10574314743280411,0.023142052814364433,-0.4731016457080841,-0.32735082507133484,0.16793040931224823,-0.27096307277679443,0.0577407069504261,-0.25978460907936096,0.060478828847408295,0.2849493622779846,-0.3397084176540375,-0.14692215621471405,0.46330544352531433,-0.06248633563518524,-0.3506578505039215,-0.30039867758750916,0.21328085660934448,-0.07439518719911575,0.31214672327041626,-0.10685503482818604,0.3572637438774109,-0.03252094238996506,-0.11685188114643097,0.19510222971439362,-0.13350284099578857,0.1961936056613922,-0.30011624097824097,0.3873436748981476,-0.20227035880088806,-0.13313333690166473,-0.31812161207199097,-0.06891689449548721
forte_family.callie,-0.2679382860660553,-0.09418259561061859,0.20330889523029327,-0.20652233064174652,0.26118260622024536,0.09128512442111969,-0.4213482439517975,0.13769131898880005,0.25235477089881897,-0.017870444804430008,-0.27401256561279297,-0.35265088081359863,0.07484958320856094,-0.3789810538291931,-0.4736989438533783,-0.4633074402809143,-0.1951877325773239,-0.08934134244918823,-0.39019206166267395,-0.20295454561710358,0.39465612173080444,-0.2459096610546112,-0.36029502749443054,-0.05044417083263397,0.10516735166311264,-0.39083367586135864,0.03214149922132492,-0.22872984409332275,0.11993526667356491,0.006340718828141689,-0.07999768853187561,0.06981496512889862,0.09643510729074478,-0.1431020200252533,0.05140016973018646,0.4365047514438629,-0.17961730062961578,0.25487020611763,-0.3438975512981415,-0.10807976871728897
forte_family.calvin,0.35209789872169495,-0.44213613867759705,0.1766846626996994,-0.09260808676481247,0.04943038523197174,-0.05139366537332535,-0.4379274547100067,0.24661162495613098,0.4165108799934387,0.1948956996202469,-0.3571268618106842,-0.16874141991138458,0.5939446687698364,-0.11858855932950974,0.002932929899543524,-0.17005831003189087,-0.25401371717453003,-0.32485803961753845,-0.329936683177948,-0.17779240012168884,0.3945596516132355,-0.00038342014886438847,0.21819968521595,-0.48653799295425415,0.2127825915813446,-0.25341394543647766,0.3834763765335083,-0.294575572013855,0.1789143681526184,-0.4747075140476227,0.1327594369649887,-0.30931851267814636,-0.09180115908384323,-0.16507863998413086,-0.15878711640834808,0.27323630452156067,-0.20571450889110565,0.37555256485939026,-0.39419984817504883,-0.07064849138259888
forte_family.carl,-0.30968034267425537,0.041309382766485214,0.3112056255340576,-0.20433402061462402,0.19440512359142303,0.053277961909770966,-0.4358989894390106,0.281387060880661,0.1881246566772461,-0.6779636144638062,-0.38405513763427734,-0.3082883954048157,0.012847582809627056,-0.3867674171924591,-0.29260891675949097,-0.5645446181297302,-0.232961505651474,-0.1575600802898407,-0.2398333102464676,-0.16057422757148743,0.4458965063095093,-0.1797735095024109,-0.27872776985168457,-0.11615286022424698,0.16557952761650085,-0.32035309076309204,-0.014981204643845558,-0.34656253457069397,0.3220702111721039,-0.14929553866386414,-0.11984134465456009,0.17980553209781647,0.08043992519378662,-0.1823224127292633,0.19702135026454926,0.4550991654396057,-0.2207745462656021,0.09848012775182724,-0.322614461183548,0.016008863225579262
forte_family.carlos,-0.12355555593967438,-0.3905985653400421,0.1763506680727005,0.02611500769853592,0.05689110606908798,-0.31755146384239197,-0.13328704237937927,0.24893103539943695,-0.0568685345351696,-0.2887212932109833,-0.1125236228108406,-0.35683777928352356,0.20917722582817078,-0.30867981910705566,-0.0873524472117424,-0.5696094632148743,-0.17675139009952545,0.050061628222465515,-0.2014951854944229,-0.2530263662338257,0.4763090908527374,-0.1948082149028778,0.07712428271770477,0.2640540897846222,0.35905441641807556,-0.2174411118030548,0.3143385648727417,-0.36538517475128174,0.22519400715827942,-0.15292957425117493,-0.11724837869405746,0.3049028515815735,-0.1840120404958725,-0.2020992487668991,-0.4143465459346771,0.1755218505859375,-0.15108433365821838,0.41625967621803284,-0.632433295249939,-0.09171628952026367
forte_family.christy,0.16084517538547516,-0.3313440680503845,0.1767357438802719,-0.22837786376476288,-0.21704724431037903,-0.0479213185608387,-0.2504238486289978,0.15162615478038788,0.2859952449798584,0.20710690319538116,-0.3232519030570984,-0.1923844814300537,-0.15074457228183746,-0.15148349106311798,-0.12532241642475128,-0.43517187237739563,-0.11271166801452637,0.12347950041294098,-0.2471798062324524,-0.38543900847435,0.3523464500904083,-0.12171117216348648,0.1789710521697998,0.17990157008171082,0.3971697688102722,-0.23228780925273895,0.2660822868347168,-0.3838774561882019,0.06797061115503311,-0.34335994720458984,0.15753044188022614,-0.16774079203605652,-0.4456011950969696,-0.06692387163639069,-0.08211780339479446,0.29287266731262207,-0.1938520073890686,0.2506750226020813,-0.3917737901210785,-0.15208642184734344
forte_family.cornelia,-0.22895585000514984,-0.33242398500442505,0.241350457072258,-0.2819148302078247,0.05400331690907478,-0.13349296152591705,-0.6457227468490601,0.15833266079425812,0.32011789083480835,-0.10810227692127228,-0.05449938029050827,-0.3843885362148285,0.24349425733089447,-0.24498070776462555,-0.3499290347099304,0.11578825861215591,0.16233156621456146,0.0684962123632431,-0.2803420126438141,-0.6403740048408508,-0.07807352393865585,0.12148889154195786,0.04785116761922836,-0.02953363209962845,0.3679317831993103,-0.35641753673553467,0.01660168543457985,-0.18225781619548798,0.07869134843349457,-0.14539043605327606,-0.34519505500793457,-0.12804976105690002,0.21396927535533905,-0.44305893778800964,-0.18156278133392334,0.008881332352757454,-0.4602051377296448,0.08321429789066315,-0.4722369909286499,-0.16933998465538025
forte_family.david,-0.32264041900634766,-0.3200947344303131,0.32431817054748535,-0.010698333382606506,0.23396700620651245,0.03343646228313446,-0.6082747578620911,0.3978617787361145,0.051520876586437225,-0.07380460202693939,-0.2123269885778427,-0.4129263460636139,0.4262901544570923,-0.4728819727897644,-0.39086517691612244,-0.3951106369495392,0.16909293830394745,0.032849445939064026,-0.05862657353281975,-0.14600928127765656,0.37273839116096497,-0.17862285673618317,-0.36288517713546753,-0.4562647342681885,0.3300637900829315,0.09364599734544754,-0.11543150246143341,-0.0684693306684494,0.373291015625,0.017226960510015488,-0.2246527224779129,-0.15174637734889984,0.057948626577854156,-0.10908067971467972,-0.16161704063415527,-0.27139511704444885,-0.04113477095961571,0.2802319824695587,0.08264769613742828,0.18213720619678497
forte_family.deanna,-0.21687807142734528,-0.3507714569568634,0.4149860739707947,0.03524278476834297,0.3516077399253845,-0.15481209754943848,-0.36194974184036255,0.08695352077484131,0.15829096734523773,0.06394100189208984,-0.3922658860683441,-0.3263591229915619,-0.07921450585126877,-0.4575851857662201,-0.39423930644989014,-0.4226416051387787,0.11748653650283813,0.09408178180456161,-0.253275066614151,-0.18693315982818604,0.4353131651878357,-0.18109561502933502,-0.23573680222034454,-0.16355404257774353,0.15333925187587738,-0.16175216436386108,0.29076218605041504,-0.09399430453777313,0.10971424728631973,-0.2955273687839508,0.07232062518596649,0.18991442024707794,-0.19484928250312805,-0.2656429708003998,-0.1819063425064087,-0.055122289806604385,-0.3569909930229187,0.19363293051719666,-0.28622832894325256,-0.0779266208410263
forte_family.elisa,-0.23748928308486938,-0.26659584045410156,0.3027896583080292,-0.2645372152328491,-0.006345473695546389,-0.02570573054254055,-0.3874542713165283,0.03439335152506828,0.33912602066993713,-0.23365533351898193,-0.34513619542121887,-0.38970014452934265,-0.16241146624088287,-0.09719162434339523,-0.5957567691802979,-0.11099083721637726,0.1628647893667221,0.055567290633916855,-0.07465810328722,-0.46720942854881287,0.29712989926338196,0.12107652425765991,-0.3964054584503174,0.06760934740304947,0.3666699528694153,0.05446818843483925,0.0023783864453434944,-0.15155605971813202,0.029292862862348557,-0.029116278514266014,-0.2546561658382416,-0.16963228583335876,-0.32598164677619934,-0.11501538008451462,-0.11582951992750168,-0.194601908326149,-0.05760006979107857,0.16927126049995422,0.02833186648786068,-0.25202831625938416
forte_family.eric,-0.14518515765666962,-0.6440168023109436,0.3369620740413666,-0.31435999274253845,0.016203422099351883,0.08876776695251465,-0.5053653120994568,0.22152487933635712,0.03248794749379158,-0.24983571469783783,-0.27151837944984436,-0.27181118726730347,0.06546483188867569,0.04864833131432533,-0.6134950518608093,-0.15796971321105957,-0.45524322986602783,-0.04724319651722908,-0.37386229634284973,-0.1144634261727333,0.4817311763763428,0.46529000997543335,-0.3309134542942047,0.09650196135044098,0.27061009407043457,-0.4030720591545105,0.01058210525661707,-0.011900991201400757,-0.28809598088264465,-0.08262207359075546,-0.03067103773355484,-0.2075706422328949,-0.038845598697662354,-0.025893578305840492,0.029111485928297043,-0.1608070582151413,-0.21134309470653534,0.36888617277145386,-0.24294844269752502,-0.19142505526542664
forte_family.f12,0.04549235478043556,-0.2923162281513214,-0.07582169026136398,-0.15059790015220642,-0.03549689054489136,-0.10693556815385818,0.2206617295742035,0.34057775139808655,0.269103080034256,0.27219703793525696,-0.31704819202423096,-0.25330838561058044,-0.03488167002797127,-0.33144411444664,-0.21970558166503906,-0.3228832185268402,0.19318991899490356,-0.2721029222011566,-0.35068246722221375,-0.14148962497711182,0.1675308495759964,0.3656185269355774,-0.5067511796951294,-0.25019362568855286,0.2776780426502228,-0.33265531063079834,0.39578840136528015,-0.4960244297981262,-0.11723139137029648,-0.17108239233493805,-0.183571457862854,0.24453186988830566,0.2947346568107605,-0.3641320466995239,-0.24660921096801758,0.13132284581661224,-0.04969640448689461,0.07725165039300919,-0.498849093914032,-0.07583347707986832
forte_family.f14,0.559066653251648,-0.3854861259460449,0.2740209996700287,-0.397752970457077,0.13998718559741974,-0.35149070620536804,0.02146242745220661,0.2557765543460846,0.3132266402244568,-0.2850726842880249,-0.13909411430358887,-0.35592737793922424,0.07403505593538284,-0.39273959398269653,-0.38060253858566284,0.08444794267416,-0.18635350465774536,-0.37717151641845703,-0.006795914378017187,0.055397018790245056,0.15879970788955688,0.5940989851951599,-0.4398620128631592,-0.23444883525371552,0.28693652153015137,-0.18462681770324707,0.4096302092075348,-0.23375488817691803,0.3742770254611969,0.1709212064743042,-0.11831775307655334,0.246305912733078,-0.02790873311460018,-0.3633531630039215,-0.16552945971488953,-0.08422573655843735,-0.04382980614900589,0.314367413520813,-0.49935290217399597,0.036315545439720154
forte_family.f19,0.4499276876449585,-0.14285960793495178,-0.10404807329177856,-0.07580120116472244,-0.11587314307689667,0.11908628046512604,0.12391737848520279,0.24623724818229675,0.3713828921318054,-0.2496275007724762,-0.43164801597595215,-0.4338662624359131,0.030510934069752693,-0.3977019786834717,0.05569517984986305,-0.3731793761253357,-0.3560809791088104,-0.2356407344341278,0.1667032092809677,-0.12125618755817413,0.42107364535331726,-0.05825537070631981,-0.5296162366867065,-0.2424422949552536,0.450707346200943,-0.10773833096027374,0.025074636563658714,-0.4113929867744446,-0.05170256644487381,-0.22138254344463348,-0.19344787299633026,0.18883280456066132,-0.09238460659980774,-0.32398271560668945,-0.5900388360023499,0.07120499014854431,-0.2597730755805969,0.4557889699935913,0.0959458127617836,-0.13506895303726196
forte_family.f2,-0.05576840043067932,-0.2644731402397156,0.08593153953552246,-0.3953043222427368,-0.42393797636032104,-0.11888093501329422,-0.2104436159133911,0.15925608575344086,0.3993140459060669,-0.11162015050649643,-0.2883898615837097,-0.22618170082569122,0.037503089755773544,-0.5162261128425598,-0.003759178100153804,-0.292450875043869,-0.35039639472961426,0.06369927525520325,-0.45290490984916687,-0.19352266192436218,0.1445120871067047,0.013646923005580902,-0.28737980127334595,-0.492669939994812,0.38752955198287964,0.24647119641304016,0.4912431240081787,-0.24825450778007507,0.37980180978775024,-0.1799437254667282,-0.1285601556301117,0.1778002232313156,-0.5110511779785156,-0.37933045625686646,-0.1599418967962265,0.35430318117141724,-0.0688512772321701,0.3810906708240509,-0.11661602556705475,0.06195094808936119
forte_family.f20,0.3462465703487396,-0.26240843534469604,-0.1307581216096878,0.04922543466091156,0.020051978528499603,0.08553206920623779,0.17007282376289368,0.1843385398387909,0.2884003818035126,-0.18548698723316193,-0.3784513771533966,-0.37269577383995056,0.00863587949424982,-0.45850926637649536,-0.3226688802242279,-0.3777227997779846,-0.2922845780849457,0.25518786907196045,0.12511147558689117,-0.4951757490634918,0.4342164397239685,0.18530094623565674,-0.5767017006874084,-0.2384331226348877,0.4348016679286957,-0.1314210295677185,0.056534700095653534,-0.19785058498382568,-0.07615292072296143,-0.3024544417858124,-0.22889065742492676,0.22755952179431915,0.1968410313129425,-0.42145100235939026,-0.01753874495625496,0.0976695567369461,-0.2516746520996094,0.010788215324282646,0.046538159251213074,0.25659042596817017
forte_family.f21,-0.4229664206504822,-0.2696593105792999,-0.06231275945901871,0.027972709387540817,0.11390145868062973,0.05990380793809891,-0.36870551109313965,0.25118401646614075,0.4034372568130493,0.15355545282363892,-0.2810545265674591,-0.02641225978732109,0.0777687206864357,-0.19074302911758423,-0.2277715504169464,-0.19458332657814026,-0.40358397364616394,-0.06955284625291824,-0.11558763682842255,-0.27486124634742737,0.17414060235023499,0.0740383043885231,-0.648045539855957,-0.3452925384044647,0.2721159756183624,-0.06744273006916046,0.26017525792121887,-0.16606931388378143,0.15263725817203522,0.1858125627040863,-0.26843133568763733,0.3970799148082733,0.03839435428380966,-0.14367468655109406,-0.23461739718914032,0.35728511214256287,0.20570389926433563,0.5919510126113892,-0.08102095127105713,0.24656400084495544
forte_family.f22,-0.26132452487945557,-0.37242600321769714,-0.11583977192640305,-0.4368445575237274,0.16374501585960388,-0.02021348662674427,-0.2994205951690674,0.3143657147884369,0.363271027803421,0.1049940288066864,-0.27941301465034485,-0.02119595743715763,0.30572646856307983,-0.14394362270832062,-0.3433561325073242,-0.2100849151611328,-0.3264705538749695,0.11140304058790207,-0.16135917603969574,-0.42474332451820374,0.16358447074890137,0.2084762305021286,-0.6775359511375427,-0.060203950852155685,0.30412229895591736,-0.08120931684970856,0.4805188477039337,-0.33337292075157166,0.1195090040564537,0.23883138597011566,-0.22638756036758423,0.403965026140213,-0.2908731698989868,-0.16791771352291107,-0.19353707134723663,0.2337460070848465,0.18561996519565582,-0.14048811793327332,-0.08875536173582077,-0.4122650623321533
forte_family.f23,0.01942722126841545,-0.3443033993244171,0.02840869128704071,-0.05884990096092224,-0.3011236786842346,0.26502725481987,-0.5918694138526917,0.421280175447464,0.23170077800750732,-0.30214571952819824,-0.2654244005680084,0.04944797605276108,0.45663976669311523,-0.17155517637729645,-0.183856800198555,-0.23595277965068817,-0.14099307358264923,0.44990625977516174,0.28756242990493774,-0.27067336440086365,0.5125184655189514,0.4502258002758026,-0.43700939416885376,-0.20546402037143707,0.09316122531890869,-0.4204317331314087,0.35822412371635437,-0.3818435072898865,0.2960658073425293,-0.07991411536931992,-0.2916930913925171,-0.3869871497154236,0.17287835478782654,-0.44149455428123474,-0.1704476773738861,0.26210150122642517,-0.14072157442569733,0.261822909116745,-0.36101824045181274,-0.29142504930496216
forte_family.f25,-0.011703821830451488,-0.2618553340435028,0.026259170845150948,-0.04050857946276665,-0.297608345746994,0.2330954521894455,-0.4621438682079315,0.18035763502120972,0.33093222975730896,-0.3011082708835602,-0.22488956153392792,-0.00677910353988409,0.06835660338401794,-0.15878808498382568,-0.13804414868354797,-0.24113523960113525,-0.20877519249916077,-0.3963659703731537,0.2673388421535492,-0.1872694343328476,0.43333640694618225,-0.061329059302806854,-0.40864917635917664,-0.23448055982589722,0.1126699298620224,-0.38846027851104736,0.3363102376461029,-0.14273060858249664,0.38322725892066956,-0.06605833768844604,-0.23457953333854675,-0.38117745518684387,-0.3208759129047394,-0.49033334851264954,-0.7063857913017273,0.18185605108737946,-0.18663738667964935,0.25681090354919434,-0.33493882417678833,-0.25003910064697266
forte_family.f26,-0.20658935606479645,-0.09388627111911774,-0.31045711040496826,-0.1298750340938568,0.08807364851236343,-0.09883274137973785,-0.257027804851532,0.21039672195911407,0.40887680649757385,-0.10101086646318436,-0.24826134741306305,0.13772158324718475,0.4702478051185608,-0.3048700988292694,-0.03054322488605976,0.07447948306798935,-0.29251667857170105,-0.3268880546092987,0.12749841809272766,-0.2699275612831116,0.1948426216840744,0.16495047509670258,-0.2106076180934906,-0.32022127509117126,0.38300368189811707,-0.3430274724960327,0.43129652738571167,-0.2615743577480316,0.2663933336734772,-0.30607548356056213,-0.2460963875055313,0.22269253432750702,-0.3064265549182892,-0.2009139209985733,-0.13680297136306763,-0.12323252856731415,-0.24107494950294495,0.47137215733528137,-0.5726341605186462,0.06447578221559525
forte_family.f28,-0.20999620854854584,-0.36389365792274475,-0.30435657501220703,-0.186025008559227,0.06544623523950577,-0.1541680097579956,-0.25375527143478394,0.17853519320487976,0.3876968324184418,-0.08006121218204498,-0.3399948179721832,0.10313429683446884,-0.3200949728488922,-0.28001338243484497,-0.023391112685203552,0.13117562234401703,-0.37164437770843506,0.22321608662605286,0.06658606231212616,-0.5818067789077759,0.21422897279262543,0.04877975583076477,-0.18188557028770447,-0.44814741611480713,0.33169278502464294,-0.27572935819625854,0.5772658586502075,-0.24966073036193848,0.3262869417667389,-0.292310893535614,-0.2652859091758728,0.21855668723583221,-0.16270124912261963,-0.2770880460739136,-0.15769629180431366,-0.08909826725721359,-0.2424706220626831,0.03316927328705788,-0.5885332226753235,-0.14580951631069183
forte_family.f8,-0.18097808957099915,-0.40189114212989807,-0.15546390414237976,-0.010164114646613598,-0.08348015695810318,-0.1148732453584671,0.14993900060653687,0.41688957810401917,0.30517417192459106,-0.2448236495256424,0.08764907717704773,-0.23249876499176025,0.11172071844339371,-0.5905099511146545,-0.1433177888393402,-0.28793787956237793,-0.2781548500061035,0.3853260576725006,-0.25556933879852295,-0.14185652136802673,0.5100242495536804,0.006560205016285181,-0.01197127252817154,-0.3348201513290405,0.06800784170627594,-0.4391278624534607,0.38040927052497864,-0.48132964968681335,0.29759475588798523,-0.3446921408176422,-0.2598768174648285,0.5643734335899353,0.045005474239587784,-0.27563580870628357,-0.2766508460044861,0.16144320368766785,-0.2678704559803009,0.5214321613311768,0.05179864913225174,-0.015047798864543438
forte_family.fannie,-0.11335582286119461,-0.210358664393425,0.4214072823524475,0.03897255286574364,-0.11687984317541122,0.1338299959897995,-0.801025390625,0.03992365300655365,0.1496906727552414,-0.16962873935699463,-0.3725818395614624,-0.19213148951530457,0.16527557373046875,-0.071774922311306,-0.23806865513324738,-0.5173670053482056,-0.5611814856529236,0.06195291876792908,-0.3322356343269348,-0.42711663246154785,0.3989972174167633,0.013220743276178837,-0.16565366089344025,-0.2899879515171051,0.22395406663417816,-0.3860219120979309,0.14019310474395752,-0.1083703339099884,-0.30738532543182373,-0.1314140111207962,-0.04733520373702049,-0.19107380509376526,-0.21155045926570892,0.021454455330967903,-0.08656204491853714,-0.1250547170639038,-0.27263200283050537,-0.003696962259709835,-0.2838936746120453,0.3238295912742615
forte_family.fred,-0.32937732338905334,-0.48027440905570984,0.399573415517807,-0.3184984028339386,-0.1016465276479721,-0.037089116871356964,-0.7774136066436768,0.2778618037700653,-0.217212975025177,-0.2746928930282593,-0.47173264622688293,-0.20806102454662323,0.05482535809278488,-0.25212422013282776,-0.08494161814451218,-0.534671425819397,-0.5417764782905579,0.4087361991405487,-0.27574726939201355,-0.13323526084423065,0.46966904401779175,0.07629763334989548,-0.02806161344051361,-0.30628132820129395,0.2966901957988739,-0.31409934163093567,0.14873214066028595,-0.05177900940179825,0.14970800280570984,-0.1794896274805069,-0.14216609299182892,0.3208078145980835,-0.17161405086517334,-0.22273465991020203,-0.17361290752887726,0.06903979927301407,-0.2812984883785248,0.1815410852432251,-0.30629050731658936,-0.18883667886257172
forte_family.frederick,-0.2210966795682907,-0.6311214566230774,0.017960917204618454,-0.06860540807247162,-0.0061032772064208984,-0.38717159628868103,0.018374456092715263,0.18430939316749573,0.026907840743660927,-0.2115090787410736,-0.6060997843742371,-0.2861880660057068,0.16346225142478943,-0.010721107944846153,-0.2818659245967865,-0.02393096685409546,-0.03148446977138519,-0.060982998460531235,0.243310809135437,-0.1963389813899994,0.00790583435446024,0.37331461906433105,-0.4549921452999115,-0.3992387652397156,0.2977919280529022,-0.10281641781330109,0.4959060251712799,-0.2827569246292114,0.29780489206314087,-0.1130065843462944,0.11574051529169083,0.222560852766037,-0.05225673317909241,0.012993593700230122,-0.22381281852722168,0.2901862859725952,-0.4151352345943451,0.5340312719345093,-0.25910040736198425,-0.07422381639480591
forte_family.gail,-0.14112013578414917,0.016954811289906502,0.25359201431274414,-0.14856848120689392,-0.5850377082824707,0.12039374560117722,-0.04396550729870796,0.06136051565408707,0.15421898663043976,-0.1775602549314499,-0.23900209367275238,-0.2557935118675232,0.06814653426408768,-0.20482225716114044,-0.28804975748062134,-0.21426281332969666,-0.4464787244796753,-0.038440950214862823,-0.30390676856040955,-0.10340071469545364,0.4134882390499115,-0.014387356117367744,-0.30178898572921753,0.013407419435679913,0.36583518981933594,-0.410555899143219,0.7804068922996521,-0.137078657746315,-0.2402639538049698,-0.262792706489563,0.020833909511566162,-0.20869626104831696,-0.042187802493572235,0.08469869941473007,-0.24234628677368164,-0.2614765763282776,-0.12536317110061646,0.43660080432891846,-0.2933995723724365,-0.17197518050670624
forte_family.george,-0.26034441590309143,-0.10443868488073349,0.3125312030315399,-0.2571699023246765,-0.06872501969337463,-0.180509552359581,-0.16062228381633759,0.4870113730430603,-0.07642459124326706,0.08409693092107773,-0.4140680730342865,-0.11210203915834427,0.1932559758424759,-0.4987374544143677,-0.6528376936912537,-0.12790820002555847,-0.17626787722110748,-0.32945361733436584,-0.13884063065052032,-0.18413375318050385,0.4032013714313507,0.6122199892997742,-0.321885347366333,-0.36242249608039856,0.3688277304172516,-0.2924259305000305,0.2169310450553894,-0.1579856425523758,0.11255132406949997,-0.06998944282531738,-0.3404825031757355,0.1655520498752594,-0.1378871351480484,-0.3045302927494049,-0.4204927086830139,0.13642461597919464,-0.289394348859787,0.5397778153419495,-0.06554341316223145,-0.14790189266204834
forte_family.harry,-0.11958296597003937,-0.1574239432811737,0.22959934175014496,-0.3196021318435669,-0.04817384481430054,0.026340290904045105,0.02309669740498066,0.4535621702671051,0.08809847384691238,-0.2824593782424927,-0.19893833994865417,-0.27950984239578247,0.04582596570253372,-0.04284881800413132,-0.2853545546531677,-0.3961588740348816,-0.48387637734413147,0.29102450609207153,-0.3458455204963684,-0.04543348029255867,0.4749000370502472,0.030927838757634163,-0.4219750463962555,-0.48748984932899475,0.3576580882072449,-0.4439995586872101,0.19688843190670013,-0.3835679590702057,-0.2550451457500458,0.08079542964696884,-0.05905672907829285,-0.2003300040960312,-0.07190033793449402,0.1711353063583374,-0.27475661039352417,-0.09966223686933517,-0.2914409339427948,-0.09379199892282486,-0.2550598084926605,-0.25487229228019714
forte_family.helen,-0.2581530809402466,-0.19482551515102386,0.14524604380130768,-0.40471360087394714,0.060942552983760834,-0.20664848387241364,-0.02628362737596035,0.23182955384254456,0.5188887119293213,0.07461293041706085,-0.3508184552192688,-0.35961198806762695,-0.06079438701272011,-0.17280466854572296,-0.23459777235984802,-0.20654939115047455,-0.46539944410324097,-0.13571928441524506,-0.404552698135376,-0.2974805235862732,0.37511783838272095,-0.14585793018341064,-0.14222002029418945,-0.18456099927425385,0.1930600255727768,-0.5977240800857544,0.2632809281349182,-0.3016660511493683,-0.03856562823057175,-0.06406060606241226,0.1187918409705162,0.1477404534816742,-0.14737576246261597,0.003799362573772669,-0.20515970885753632,0.03750661388039589,-0.29067161679267883,-0.054551176726818085,0.017984062433242798,-0.3986508250236511
forte_family.jack,0.3586442172527313,-0.04876597970724106,0.10486798733472824,-0.06620219349861145,0.22808828949928284,-0.17000190913677216,-0.3733876347541809,0.20373430848121643,0.2847123146057129,0.19588500261306763,-0.3101634085178375,-0.16772395372390747,-0.04863378405570984,-0.05627937242388725,-0.46213072538375854,-0.21422342956066132,-0.21619249880313873,0.16162817180156708,-0.31940963864326477,-0.28934571146965027,0.3735862374305725,0.12470347434282303,0.18352682888507843,-0.28336092829704285,0.017013097181916237,-0.17514485120773315,0.3576015532016754,-0.16067737340927124,0.33987876772880554,-0.4086226224899292,0.12836982309818268,-0.22440753877162933,0.3149275779724121,-0.23399321734905243,-0.5611218214035034,0.19279342889785767,-0.26284077763557434,0.031638700515031815,-0.33597761392593384,0.010638185776770115
forte_family.james,-0.1702440232038498,-0.605355978012085,0.6222487688064575,-0.45913466811180115,0.09724365919828415,-0.3015693128108978,-0.33989134430885315,0.29252931475639343,0.003202645340934396,-0.5673969388008118,-0.2107842117547989,-0.24501146376132965,-0.034691471606492996,-0.2906775176525116,0.2154194861650467,-0.05523025989532471,-0.3438313603401184,-0.5228626728057861,-0.09404861181974411,-0.21512439846992493,0.5075223445892334,-0.00938580185174942,0.025967884808778763,-0.14563524723052979,0.23759083449840546,-0.23448339104652405,0.31070083379745483,-0.387826144695282,0.20343759655952454,-0.1809632033109665,-0.34287363290786743,0.28802669048309326,-0.08066953718662262,-0.20573018491268158,-0.29587045311927795,0.0722513496875763,-0.06428448110818863,-0.105733223259449,-0.3717971444129944,-0.2557521462440491
forte_family.jane,-0.13540253043174744,-0.13911932706832886,0.11871636658906937,-0.14705099165439606,0.25534746050834656,-0.35784655809402466,-0.114635169506073,0.0944163054227829,0.1279388964176178,-0.2671678960323334,-0.5560094118118286,-0.22889971733093262,0.4454526901245117,0.06066010147333145,-0.23192746937274933,-0.05798513442277908,-0.04434045031666756,-0.13368645310401917,0.15419289469718933,-0.4675860106945038,0.08830013871192932,-0.11424241960048676,-0.4063369035720825,0.017543239519000053,0.015351963229477406,-0.0893157348036766,0.3974021375179291,-0.21997511386871338,0.14472468197345734,-0.13322943449020386,0.10218338668346405,0.07307861745357513,-0.15666446089744568,-0.16584132611751556,-0.2854074239730835,0.1136142686009407,-0.3489563465118408,-0.0669424757361412,-0.2439471185207367,-0.14895719289779663
forte_family.janet,0.009379328228533268,-0.3552035391330719,0.5563796162605286,-0.28989797830581665,-0.21893489360809326,0.02023157849907875,-0.31076377630233765,0.10288185626268387,0.3453175127506256,-0.4667637348175049,-0.18453316390514374,-0.4484652876853943,0.03686634823679924,-0.18208952248096466,-0.14016926288604736,0.05166241154074669,-0.029329892247915268,-0.5453643798828125,-0.14257726073265076,-0.262911319732666,0.20544227957725525,-0.021046675741672516,0.03331605717539787,-0.10329552739858627,0.34879741072654724,-0.10701937228441238,0.2816314399242401,-0.3067666292190552,0.0038135617505759,0.017788171768188477,0.10961785167455673,0.2867738604545593,-0.02835145965218544,0.07671049237251282,0.05635061860084534,0.25226444005966187,-0.3206728398799896,0.35348889231681824,-0.10486825555562973,-0.13014867901802063
forte_family.jonas,-0.15441972017288208,-0.1929650902748108,0.44791659712791443,-0.1323494166135788,0.07548912614583969,0.1163894459605217,-0.2722519040107727,0.49457848072052,0.24821597337722778,-0.16995155811309814,-0.29341161251068115,0.043483540415763855,0.22164447605609894,-0.6581102013587952,-0.4938220679759979,0.06324515491724014,-0.5678900480270386,0.3193124234676361,-0.2979292571544647,-0.014005857519805431,0.509089469909668,0.19842678308486938,-0.029364949092268944,-0.2675620913505554,0.10248306393623352,-0.33778560161590576,-0.021967381238937378,-0.47065791487693787,0.3700893223285675,-0.13482294976711273,-0.26537612080574036,0.09804687649011612,0.2972559928894043,-0.24371634423732758,-0.6712708473205566,0.1857639104127884,0.22433267533779144,-0.002717010211199522,-0.42959392070770264,0.15173186361789703
forte_family.kari,-0.3363320231437683,-0.2289605289697647,0.25867003202438354,0.03907953202724457,-0.06341715902090073,-0.3658164441585541,-0.2510545253753662,0.1979057639837265,0.42239436507225037,-0.03774641826748848,-0.2991846203804016,-0.39833706617355347,0.3513645827770233,-0.4290674328804016,-0.30305251479148865,-0.4354649484157562,-0.32726719975471497,-0.15035921335220337,-0.25080424547195435,-0.23357760906219482,0.4804942309856415,-0.034734293818473816,-0.3294423520565033,0.09758496284484863,0.18099956214427948,-0.1095426008105278,0.3451123535633087,-0.16525593400001526,0.2717095911502838,-0.11104360222816467,-0.14208664000034332,-0.05332038551568985,-0.4181919991970062,0.07212967425584793,-0.00716820266097784,-0.18774178624153137,-0.2694397270679474,0.2047918438911438,-0.32124415040016174,-0.28855517506599426
forte_family.karl,-0.15919601917266846,-0.2388990819454193,0.4792661964893341,0.30951613187789917,0.004163345322012901,-0.3165031969547272,-0.13261285424232483,0.48578089475631714,0.1975167691707611,0.14721360802650452,-0.35643112659454346,0.09523386508226395,-0.23910342156887054,-0.39768752455711365,-0.12118983268737793,-0.13342398405075073,-0.4909352660179138,-0.16787727177143097,-0.16949141025543213,-0.2520712912082672,0.5089911818504333,0.2706148326396942,-0.36491328477859497,-0.23476575314998627,0.062795490026474,-0.31814083456993103,0.10637681186199188,-0.5685320496559143,0.18521232903003693,-0.5139917731285095,-0.1700746715068817,0.031843096017837524,0.051822494715452194,-0.1324649602174759,-0.12981948256492615,-0.2931526303291321,-0.2745181918144226,0.14202183485031128,0.23759962618350983,-0.03975151106715202
forte_family.leon,-0.3110007643699646,-0.07659319043159485,0.3388617932796478,-0.25936079025268555,0.3680485785007477,-0.08485118299722672,-0.3355744183063507,0.15388768911361694,0.45031291246414185,-0.009429080411791801,-0.35612252354621887,-0.4086999297142029,-0.3084167242050171,-0.4377461075782776,-0.5568501949310303,-0.38586124777793884,-0.37624606490135193,0.22958388924598694,-0.192685067653656,-0.14462962746620178,0.49970898032188416,0.1291206330060959,-0.2776983082294464,-0.22234280407428741,-0.15330882370471954,-0.5069406032562256,0.26524659991264343,-0.018478848040103912,0.3305940628051758,0.08035700768232346,-0.21898925304412842,0.3448525667190552,-0.1335560381412506,-0.2073318511247635,-0.06021814048290253,-0.05367600917816162,-0.27592039108276367,-0.026703543961048126,-0.20711518824100494,-0.5181124210357666
forte_family.lorrie,-0.22166471183300018,-0.03455321118235588,0.3356926143169403,-0.1787041872739792,0.36089998483657837,-0.1235523372888565,-0.19009548425674438,0.004739958792924881,0.4577139914035797,0.12655025720596313,-0.3505491316318512,0.12349757552146912,0.6524501442909241,-0.24904288351535797,-0.4476087689399719,-0.1703750044107437,-0.45604249835014343,-0.0047036162577569485,-0.20057672262191772,-0.49102386832237244,0.4142417311668396,-0.039748627692461014,-0.37775683403015137,-0.12755833566188812,-0.16958199441432953,-0.4458889663219452,0.0841817706823349,-0.05233223736286163,0.26614198088645935,-0.3144609332084656,-0.1869509071111679,-0.04109084606170654,-0.05742722004652023,-0.25533878803253174,-0.14517083764076233,-0.23178847134113312,-0.2752607762813568,0.011052470654249191,0.23902812600135803,-0.055728282779455185
forte_family.m1,-0.06665393710136414,-0.2508660852909088,0.08903162181377411,0.13276807963848114,-0.46928754448890686,-0.0793556496500969,-0.30980923771858215,0.2937863767147064,0.3658650517463684,-0.173810675740242,-0.34993669390678406,-0.24312789738178253,0.24635343253612518,-0.47292619943618774,-0.48026764392852783,-0.3458154797554016,-0.33597713708877563,0.02127857878804207,-0.47047853469848633,-0.4146927297115326,0.19552893936634064,-0.005330420099198818,-0.27828049659729004,-0.16180318593978882,0.3732968270778656,0.20242755115032196,0.345540851354599,-0.2360304445028305,0.38306689262390137,-0.1833801120519638,-0.1283719837665558,0.10795335471630096,0.2646004259586334,-0.30748435854911804,-0.41492941975593567,0.3491751253604889,-0.0726238489151001,0.04702487587928772,-0.053568318486213684,-0.15016990900039673
forte_family.m10,-0.17605601251125336,-0.37560927867889404,-0.1530299186706543,-0.33665305376052856,-0.13437430560588837,-0.10493762046098709,0.16023045778274536,0.16564393043518066,0.29906272888183594,-0.2568871080875397,0.058998964726924896,-0.22338441014289856,0.32623356580734253,-0.5798303484916687,-0.3079795837402344,-0.2518772780895233,-0.3972284197807312,-0.291394978761673,-0.21775053441524506,-0.17136944830417633,0.4501166045665741,0.19633416831493378,-0.02085583470761776,-0.5169610977172852,0.1243177205324173,-0.4207412600517273,0.3886706829071045,-0.004467688035219908,0.26031431555747986,-0.3286173641681671,-0.22464367747306824,0.5266392827033997,-0.4943453371524811,-0.2673889696598053,-0.21083113551139832,0.1555994302034378,-0.2758684754371643,0.1336696743965149,0.08225396275520325,0.15714946389198303
forte_family.m11,0.04728894680738449,-0.1344335824251175,-0.1006963923573494,-0.26523107290267944,0.01825547032058239,-0.08296619355678558,0.2497486025094986,0.21988429129123688,0.29701632261276245,0.29649826884269714,-0.3287416100502014,-0.2647159695625305,0.3086445927619934,-0.4523327350616455,-0.2932693362236023,-0.2215099185705185,0.24952073395252228,0.4447540044784546,-0.3836521506309509,-0.3430156409740448,0.1795559823513031,-0.09715710580348969,-0.5557640194892883,-0.33513396978378296,0.37095212936401367,-0.35400569438934326,0.4620400369167328,-0.1551492065191269,-0.15412823855876923,-0.15160128474235535,-0.31146830320358276,0.15993300080299377,-0.5217580795288086,-0.43116360902786255,-0.1908816397190094,0.16260290145874023,-0.07607148587703705,0.5688995122909546,-0.3197684586048126,0.11315052211284637
forte_family.m13,0.575109601020813,-0.0729815885424614,0.3103446960449219,-0.0814419761300087,0.19269472360610962,-0.4197727143764496,-0.01629803515970707,0.1815396249294281,0.5302140712738037,-0.14885875582695007,-0.244843989610672,-0.30370619893074036,0.29451680183410645,-0.4058884084224701,-0.22985365986824036,0.14762374758720398,-0.18577934801578522,-0.0626298114657402,-0.03367563709616661,-0.34558093547821045,0.06737440824508667,-0.04622042924165726,-0.3340279459953308,-0.34670454263687134,0.3000088930130005,-0.14386998116970062,0.4335733652114868,-0.12785649299621582,0.3012809157371521,0.13641025125980377,-0.23748324811458588,0.2226748913526535,-0.23322506248950958,-0.32881298661231995,-0.16922684013843536,-0.04166660085320473,-0.009090316481888294,0.0953381136059761,-0.44121691584587097,0.5139456987380981
forte_family.m15,0.5154980421066284,-0.0993795320391655,0.31164902448654175,-0.3760485053062439,0.23154760897159576,-0.3818523585796356,-0.03422395884990692,0.41359826922416687,0.33537328243255615,-0.3033719062805176,-0.2696390748023987,-0.3414953947067261,0.10741867870092392,-0.3309166133403778,-0.09959905594587326,0.039559315890073776,-0.18898747861385345,0.4149293005466461,-0.06841156631708145,0.0683559998869896,0.18097390234470367,-0.11201938986778259,-0.3991038203239441,-0.20595763623714447,0.3120843768119812,-0.1557055115699768,0.2935396432876587,-0.6362397074699402,0.459816575050354,0.1865788996219635,-0.16728806495666504,0.23904305696487427,-0.02412891760468483,-0.35855525732040405,-0.4392411410808563,-0.09142979234457016,-0.03951682895421982,0.3955383896827698,-0.47177255153656006,0.02161669358611107
forte_family.m16,0.20109136402606964,-0.41813352704048157,-0.2050153762102127,-0.15575574338436127,0.07196252793073654,-0.13435162603855133,-0.5467526912689209,0.08461405336856842,0.22685757279396057,-0.2007504105567932,-0.37105047702789307,-0.20574507117271423,-0.20876236259937286,-0.26415303349494934,-0.18804751336574554,-0.20624344050884247,0.10485200583934784,0.19767850637435913,-0.23769190907478333,-0.4407058656215668,0.21378575265407562,0.11493655294179916,-0.1748799830675125,-0.34444907307624817,0.31341058015823364,-0.36979132890701294,0.08009444922208786,-0.2307564914226532,0.34123116731643677,-0.26829788088798523,-0.17348448932170868,0.32679083943367004,-0.5707479119300842,-0.39131417870521545,-0.2550971806049347,0.4355037212371826,0.13935637474060059,0.2305847704410553,0.07869034260511398,-0.11587740480899811
forte_family.m17,0.27100813388824463,-0.3055988848209381,-0.22480429708957672,-0.35478660464286804,0.09301593899726868,-0.08463773876428604,-0.5661119222640991,0.4194112718105316,0.3432493209838867,-0.1652274876832962,-0.4374447166919708,-0.1353667974472046,0.560388445854187,-0.24413873255252838,-0.20728667080402374,-0.22130486369132996,0.14341484010219574,-0.0298174936324358,-0.25560247898101807,-0.18441857397556305,0.22311164438724518,0.020532794296741486,-0.1886824667453766,-0.27198779582977295,0.3124866783618927,-0.3739493489265442,0.08157995343208313,-0.2379886955022812,0.34349846839904785,-0.2425631880760193,-0.1350361704826355,0.32271608710289,0.2490532249212265,-0.3430052697658539,-0.23490479588508606,0.4326688051223755,0.10846011340618134,0.2726600468158722,0.07636480778455734,-0.0019765603356063366
forte_family.m18,0.39577826857566833,-0.2845557928085327,-0.09817581623792648,-0.5349873900413513,-0.0824614018201828,0.09307507425546646,0.14404788613319397,0.2211175560951233,0.25802746415138245,-0.21586324274539948,-0.295651376247406,-0.36338159441947937,0.33679553866386414,-0.39754292368888855,-0.3107373118400574,-0.4203205108642578,-0.40072980523109436,0.12722991406917572,0.16401535272598267,-0.06289781630039215,0.43190139532089233,0.32259804010391235,-0.6431706547737122,-0.5313588380813599,0.40448686480522156,-0.1273861676454544,0.025801781564950943,-0.3071538209915161,-0.046057820320129395,-0.3879905939102173,-0.17607390880584717,0.24418996274471283,-0.4578606188297272,-0.3474532663822174,0.01893141306936741,0.045723047107458115,-0.22485309839248657,0.08506184071302414,0.047640733420848846,-0.1462417095899582
forte_family.m24,0.033441077917814255,-0.08312241733074188,-0.01229475811123848,-0.44390273094177246,-0.25461822748184204,0.26106560230255127,-0.4305803179740906,0.14128993451595306,0.42718011140823364,-0.19966046512126923,-0.31070226430892944,0.027339264750480652,0.03184216842055321,-0.1988534778356552,-0.2958972454071045,-0.23493556678295135,-0.21914318203926086,0.18013742566108704,0.2564168870449066,-0.3818347454071045,0.4194682538509369,-0.0270281620323658,-0.40503787994384766,-0.4376019835472107,0.05938450247049332,-0.42432039976119995,0.350681871175766,-0.1513999104499817,0.2826612889766693,-0.13153554499149323,-0.30269402265548706,-0.38143303990364075,-0.17113932967185974,-0.483335942029953,-0.0028857041615992785,0.18998171389102936,-0.1438707560300827,0.2975533604621887,-0.37520042061805725,0.40023547410964966
forte_family.m27,-0.16047403216362,-0.4663943350315094,-0.3122882544994354,-0.2436249852180481,0.015698427334427834,-0.05083285644650459,-0.265756756067276,0.23210351169109344,0.3977636694908142,-0.1404314935207367,-0.25407373905181885,0.08733575791120529,0.22870467603206635,-0.28473779559135437,-0.4964047372341156,0.08497720956802368,-0.3878185749053955,0.3000601530075073,0.12707273662090302,-0.1442614495754242,0.24855564534664154,0.08152920752763748,-0.20325087010860443,-0.19541925191879272,0.37019962072372437,-0.31035521626472473,0.4524782598018646,-0.4397435784339905,0.2885814309120178,-0.36760541796684265,-0.28829506039619446,0.27833718061447144,0.10277193784713745,-0.25991395115852356,-0.6706469655036926,-0.12373726069927216,-0.24686577916145325,0.13218705356121063,-0.6007676124572754,0.0055695343762636185
forte_family.m29,-0.04340195655822754,-0.32684415578842163,0.37547940015792847,-0.27921202778816223,0.4661015272140503,-0.26110413670539856,-0.47116535902023315,0.24464930593967438,0.22166740894317627,-0.14497265219688416,-0.2242002636194229,-0.3756716549396515,-0.05739273130893707,-0.2286074310541153,-0.24350015819072723,-0.37892386317253113,-0.5595628619194031,0.09072230011224747,-0.21646879613399506,-0.39107587933540344,0.45946091413497925,0.04030419513583183,-0.6320629119873047,-0.2272396981716156,-0.21806597709655762,0.05165619030594826,0.20692895352840424,-0.4710836708545685,0.18994230031967163,-0.33823829889297485,-0.21035276353359222,0.39460739493370056,-0.1322692185640335,0.2152964323759079,-0.17669619619846344,0.21533869206905365,-0.3673606812953949,0.2503933608531952,-0.37310561537742615,-0.12796083092689514
forte_family.m3,-0.047086045145988464,-0.4270254671573639,0.9130985140800476,-0.2908329665660858,-0.06341192126274109,-0.7976764440536499,-0.6542942523956299,0.3906342387199402,0.2543937563896179,0.23144228756427765,-0.278857946395874,-0.24210906028747559,0.039921846240758896,-0.07495676726102829,-0.3455391526222229,-0.479274719953537,-0.06919388473033905,0.043942227959632874,-0.15996630489826202,-0.4227519929409027,0.390507310628891,0.04552524536848068,0.10891586542129517,-0.3111400902271271,0.20802269876003265,0.027574490755796432,0.24506355822086334,-0.26985299587249756,0.06142093986272812,-0.0507776103913784,-0.4029218256473541,0.15910252928733826,-0.21231184899806976,-0.23584361374378204,-0.10293729603290558,0.06551185250282288,0.17268124222755432,0.29560375213623047,-0.2379107028245926,-0.16362905502319336
forte_family.m4,0.08785826712846756,-0.14991995692253113,0.23212236166000366,-0.07561691105365753,0.4531768560409546,0.3273904025554657,-0.15324386954307556,0.44170117378234863,0.3410157561302185,-0.3473530113697052,-0.3511224389076233,0.24195680022239685,0.20313437283039093,-0.39291566610336304,-0.2260633260011673,-0.2809247076511383,-0.3077191412448883,-0.05350400507450104,-0.4587250351905823,-0.1545609086751938,0.10357517749071121,-0.07386886328458786,-0.28612327575683594,-0.46787163615226746,0.17368066310882568,-0.2970280349254608,0.384642094373703,-0.4805930554866791,0.38708996772766113,0.10645786672830582,-0.2553035318851471,0.2577500343322754,0.28493574261665344,-0.23965270817279816,-0.1276106834411621,0.2617081105709076,-0.24487151205539703,0.03540848195552826,-0.4175853729248047,-0.22726821899414062
forte_family.m5,0.12116062641143799,-0.19047753512859344,0.21495036780834198,-0.1773536652326584,0.41096970438957214,0.3219085931777954,-0.09042512625455856,0.18313658237457275,0.4434601068496704,-0.42202845215797424,-0.26010414958000183,0.2511441707611084,0.3793412148952484,-0.3773684799671173,-0.3928287923336029,-0.26991379261016846,-0.33803653717041016,-0.058493472635746,-0.4629948139190674,-0.2017342448234558,0.02335430309176445,0.07173117995262146,-0.2708851099014282,-0.5383058786392212,0.22852835059165955,-0.29794761538505554,0.46869421005249023,-0.10344581305980682,0.2834815979003906,0.08219960331916809,-0.27024710178375244,0.25462689995765686,-0.5545268058776855,-0.225105419754982,-0.2589391767978668,0.2820393443107605,-0.27773693203926086,0.02689620666205883,-0.4206712245941162,0.08826706558465958
forte_family.m6,0.08302585035562515,-0.5017871856689453,0.20561139285564423,-0.19179163873195648,0.4115748107433319,0.3158264458179474,-0.13050734996795654,0.2292519509792328,0.2740018665790558,-0.36993977427482605,-0.3055818974971771,0.2656053602695465,-0.03414725884795189,-0.3686526417732239,-0.43268346786499023,-0.26327210664749146,-0.27779150009155273,-0.3957706093788147,-0.477998286485672,-0.26283878087997437,0.0387386754155159,0.6027990579605103,-0.2563457190990448,-0.04225223883986473,0.20080505311489105,-0.2789665460586548,0.44357597827911377,-0.3097355365753174,0.32094869017601013,0.02858169749379158,-0.18922440707683563,0.2868279218673706,-0.16269540786743164,-0.2014179825782776,-0.20751376450061798,0.27500322461128235,-0.2638573944568634,0.2295093536376953,-0.48882079124450684,-0.17364761233329773
forte_family.m7,0.0820435956120491,-0.11786974966526031,0.21716418862342834,-0.10438276827335358,0.37646958231925964,0.32373034954071045,-0.09945612400770187,0.14601999521255493,0.44564592838287354,-0.36622995138168335,-0.27692872285842896,0.19269657135009766,0.09654481709003448,-0.3664885461330414,-0.09503834694623947,-0.21318314969539642,-0.3012407124042511,0.3910667300224304,-0.4407954514026642,-0.464746356010437,0.04464534670114517,0.021822059527039528,-0.17780427634716034,0.03777691349387169,0.2251596748828888,-0.3007275462150574,0.5212937593460083,-0.25279271602630615,0.3732532858848572,-0.003439471824094653,-0.2512911558151245,0.2242588996887207,-0.03488564118742943,-0.2931446433067322,-0.3876476287841797,0.21350036561489105,-0.2907017171382904,0.5752303600311279,-0.3807055354118347,0.04249648377299309
forte_family.m9,-0.17441128194332123,-0.3939228951931,-0.15355683863162994,-0.005334156099706888,-0.6310491561889648,-0.15220484137535095,0.17905312776565552,0.1505453735589981,0.328582227230072,-0.2017548680305481,0.021237654611468315,-0.21939003467559814,0.14474260807037354,-0.6602330803871155,-0.35289713740348816,-0.22629626095294952,-0.3830239772796631,-0.02671719901263714,-0.2740510404109955,-0.5372098088264465,0.4500834345817566,0.15493667125701904,0.000582257576752454,0.019075501710176468,0.4815369248390198,-0.4232480525970459,0.37595367431640625,-0.10518324375152588,0.24655026197433472,-0.27467483282089233,-0.21387764811515808,0.568462073802948,0.07830115407705307,-0.239375039935112,-0.17214879393577576,0.18522684276103973,-0.2859607934951782,0.08587301522493362,0.06596203148365021,-0.19820192456245422
forte_family.maria,-0.5490419268608093,-0.2949219048023224,0.20216774940490723,0.010817093774676323,0.06998223811388016,-0.1013602688908577,-0.5359466075897217,0.08191978186368942,0.4329018294811249,-0.06905382871627808,-0.20624935626983643,-0.43457964062690735,-0.03250778466463089,-0.19353756308555603,-0.09665721654891968,-0.09735633432865143,-0.17460156977176666,0.1215810477733612,-0.3193521201610565,-0.2474546581506729,0.3056555390357971,0.01823466643691063,-0.03711414709687233,-0.1692880243062973,0.3206433057785034,-0.2694743871688843,0.2073085457086563,-0.41104310750961304,0.09050819277763367,-0.05019299313426018,0.16466639935970306,0.02441726066172123,-0.2840126156806946,-0.11979836225509644,-0.11727951467037201,-0.07296140491962433,-0.5110102295875549,0.16210827231407166,-0.3846592605113983,-0.35509854555130005
forte_family.mark,-0.113778255879879,-0.625295102596283,0.3999941051006317,-0.43240052461624146,-0.2631322741508484,-0.3069382905960083,-0.157052144408226,0.248958557844162,0.21279075741767883,0.15124382078647614,-0.36704763770103455,0.09702550619840622,-0.11419522017240524,-0.3372833728790283,-0.3538428544998169,-0.1667477935552597,-0.3319169282913208,0.17166857421398163,-0.1784469485282898,-0.10881996899843216,0.5454237461090088,0.16632117331027985,-0.32339581847190857,-0.451415479183197,0.26313862204551697,-0.517254650592804,-0.049805451184511185,0.2024519294500351,0.26402562856674194,-0.19721320271492004,-0.31362611055374146,-0.03429768607020378,0.07915008068084717,-0.054121579974889755,-0.27794909477233887,-0.25929588079452515,-0.21980197727680206,0.5019025802612305,0.29342517256736755,-0.09316978603601456
forte_family.martha,-0.255317360162735,-0.31453973054885864,0.33778080344200134,-0.30920612812042236,0.3170377314090729,-0.23227033019065857,-0.17358677089214325,-0.07309801131486893,0.46274450421333313,-0.19946260750293732,-0.2626807391643524,-0.36816295981407166,0.370103657245636,-0.3702320158481598,-0.2547883987426758,-0.3284069895744324,-0.24914677441120148,0.40976694226264954,-0.3268985450267792,-0.15437962114810944,0.3303056061267853,0.014093870297074318,-0.18463101983070374,-0.14041899144649506,0.4014977216720581,-0.4147963523864746,0.02699854224920273,-0.0655212476849556,0.29872003197669983,-0.32927146553993225,-0.2230248749256134,0.0166929978877306,-0.23185253143310547,-0.2222961187362671,-0.14128272235393524,-0.1431875228881836,-0.1552005559206009,0.043374817818403244,-0.3005445599555969,-0.5455313920974731
forte_family.melvin,-0.15685291588306427,-0.4139792025089264,0.26974135637283325,0.0184270478785038,-0.014293091371655464,-0.14193707704544067,-0.7166692018508911,0.12227763235569,0.1729765087366104,-0.22904784977436066,0.02358708716928959,-0.36402085423469543,0.43724337220191956,-0.12762004137039185,0.04073198139667511,0.04812413826584816,-0.06387805193662643,0.14770105481147766,-0.2882639467716217,-0.13786406815052032,-0.016468388959765434,0.07402399182319641,0.11485840380191803,-0.42347458004951477,0.3489857316017151,-0.32440388202667236,0.06512270867824554,-0.3262679874897003,0.07965167611837387,-0.08541829884052277,-0.39149031043052673,-0.08465881645679474,-0.3623674809932709,-0.1558695286512375,-0.43358954787254333,-0.031173428520560265,-0.6405112147331238,0.13166558742523193,-0.4943205416202545,0.013555244542658329
forte_family.nancy,-0.13991814851760864,-0.25571760535240173,0.10417017340660095,-0.08571088314056396,-0.17440804839134216,-0.2606489360332489,-0.49100640416145325,0.05270388349890709,0.204626202583313,-0.13667583465576172,-0.013935430906713009,-0.31678125262260437,-0.31525447964668274,-0.2451210618019104,-0.3950118124485016,0.05022605508565903,0.046235181391239166,-0.06176343932747841,-0.24974679946899414,-0.1506897360086441,0.04365195706486702,-0.0873793512582779,-0.05278204008936882,-0.18193289637565613,0.3493635952472687,-0.267673134803772,-0.09007061272859573,-0.5536121129989624,0.020578335970640182,-0.1092085987329483,-0.2803729772567749,-0.05113143101334572,-0.14209890365600586,-0.21148665249347687,0.03227377310395241,0.0057431431487202644,-0.3288862407207489,0.46827495098114014,-0.5104143619537354,0.03181562200188637
forte_family.neil,-0.011631402187049389,-0.40703439712524414,0.21464766561985016,-0.18617312610149384,-0.15531031787395477,-0.3909769654273987,-0.26586514711380005,0.026088370010256767,-0.09012351185083389,-0.30692508816719055,-0.42888206243515015,-0.13198843598365784,0.08248912543058395,-0.33465099334716797,-0.08202910423278809,-0.15471376478672028,-0.34620288014411926,0.09452050179243088,-0.2784019410610199,-0.2535673975944519,0.2670300602912903,-0.053680937737226486,-0.34865954518318176,-0.3116002678871155,0.300062894821167,-0.09725164622068405,-0.06799612194299698,-0.561316967010498,0.5716652870178223,0.07521140575408936,-0.28561344742774963,0.10881152749061584,0.013052297756075859,-0.23860234022140503,0.058552224189043045,0.20480695366859436,-0.17696663737297058,0.20966583490371704,-0.2679017186164856,-0.14428511261940002
forte_family.nero,0.052145473659038544,-0.2664932608604431,0.3752557337284088,-0.18650022149085999,-0.19504839181900024,0.09870374947786331,-0.27748772501945496,0.1874563992023468,0.3184545338153839,-0.12322810292243958,-0.15476518869400024,-0.5401867628097534,0.2119421362876892,-0.4116460382938385,-0.05864175781607628,-0.02169276401400566,0.0943727046251297,0.5857079029083252,-0.2434309720993042,-0.22865308821201324,0.1311200112104416,0.13087792694568634,0.04468586668372154,-0.2760579288005829,0.3926359713077545,-0.11741919070482254,0.24850907921791077,-0.08673606812953949,0.07751745730638504,0.174964040517807,0.2385510504245758,0.33938392996788025,-0.14138056337833405,0.17307597398757935,-0.554434061050415,0.23158688843250275,-0.4361807107925415,0.33073481917381287,-0.09346679598093033,-0.05543702468276024
forte_family.nonnie,-0.35292762517929077,-0.2992519736289978,0.3640871047973633,-0.45843052864074707,0.07640479505062103,0.004664624109864235,-0.17895738780498505,0.018603108823299408,0.6039029955863953,0.01645251177251339,-0.6035972237586975,-0.27026623487472534,-0.07886344194412231,-0.33915185928344727,-0.016079869121313095,-0.14657199382781982,0.03750215098261833,0.09139504283666611,-0.28888189792633057,-0.11264225095510483,0.20926308631896973,-0.007001528516411781,-0.08194968104362488,-0.12795019149780273,0.2489849030971527,-0.4281764328479767,0.24364535510540009,-0.20205272734165192,0.21629363298416138,-0.36371350288391113,0.05534236505627632,0.1206134706735611,-0.19606374204158783,-0.05230942741036415,-0.15489618480205536,0.03363138437271118,-0.3969438374042511,0.1013270914554596,-0.20946674048900604,-0.33717724680900574
forte_family.oma,-0.13001151382923126,-0.09477751702070236,0.33642998337745667,-0.3804258406162262,-0.041994500905275345,-0.41543295979499817,-0.1798347532749176,0.14154961705207825,0.21043135225772858,-0.1297232210636139,-0.007193005643785,0.020522935315966606,-0.048269182443618774,-0.234071284532547,-0.3713635504245758,-0.011532120406627655,0.006712350528687239,-0.11963238567113876,-0.2675797641277313,-0.24482931196689606,0.2991289794445038,-0.1401948630809784,-0.1253666877746582,-0.09171254932880402,-0.09919779002666473,-0.3718808889389038,0.29152747988700867,-0.1887381672859192,0.04749038815498352,-0.2703324854373932,0.14794407784938812,0.11806546151638031,-0.480244904756546,-0.4084628224372864,-0.19796009361743927,0.18484456837177277,-0.3382473289966583,0.046681031584739685,-0.39508211612701416,-0.24118387699127197
forte_family.owen,-0.21410530805587769,0.00736528355628252,0.20010505616664886,-0.388725221157074,0.07721399515867233,-0.486215740442276,-0.13272160291671753,0.1978454738855362,0.02984355017542839,-0.11566679924726486,-0.1038094013929367,-0.25832465291023254,0.19006860256195068,-0.30507132411003113,-0.4913024306297302,-0.17676196992397308,-0.11804525554180145,0.09022413194179535,-0.32346856594085693,-0.134128600358963,0.5129457712173462,-0.049532487988471985,-0.28069934248924255,-0.08680302649736404,0.046031463891267776,-0.44866159558296204,0.2523564398288727,-0.3614899218082428,0.43561023473739624,-0.10868513584136963,-0.5580804347991943,0.12564215064048767,-0.0843428298830986,-0.3011022210121155,-0.2331334799528122,0.10354342311620712,-0.36129969358444214,0.029274381697177887,-0.4542987644672394,-0.09323129057884216
forte_family.paul,-0.22882580757141113,-0.29810255765914917,0.4274561405181885,-0.23863011598587036,-0.350219190120697,-0.2504108250141144,-0.26928243041038513,0.16346976161003113,0.17553912103176117,-0.28525835275650024,0.01929032802581787,0.10807566344738007,0.045387666672468185,-0.1577053815126419,-0.30777862668037415,-0.08278611302375793,-0.03576324135065079,-0.2852504849433899,-0.34432128071784973,-0.17850585281848907,0.3471428155899048,0.47430428862571716,-0.28806301951408386,-0.22043348848819733,-0.04310379922389984,-0.4271927773952484,0.27251216769218445,0.019278299063444138,0.25241443514823914,-0.3542734682559967,0.27268508076667786,0.14412082731723785,0.21688243746757507,0.00412034522742033,-0.2366389036178589,0.23517264425754547,-0.4339551627635956,0.44434380531311035,-0.37161001563072205,-0.27996402978897095
forte_family.paula,-0.38059136271476746,0.015650292858481407,0.44004637002944946,-0.28145721554756165,0.18105997145175934,-0.22370533645153046,-0.39154449105262756,-0.0310372281819582,0.35486969351768494,-0.16328281164169312,-0.6411099433898926,-0.24256493151187897,0.3446657359600067,-0.32262927293777466,-0.3060563802719116,-0.07146672159433365,-0.09077174216508865,0.15581391751766205,-0.36314329504966736,-0.24623700976371765,0.43644630908966064,0.07061460614204407,-0.26316773891448975,-0.08108125627040863,0.10981077700853348,-0.5230750441551208,0.21731814742088318,-0.1261688619852066,0.2770514190196991,-0.14802607893943787,0.08630135655403137,0.22712738811969757,-0.21531596779823303,-0.1519319862127304,-0.10878486186265945,0.1431533396244049,-0.4424056112766266,0.34501388669013977,-0.46711817383766174,-0.2702954411506653
forte_family.peter,-0.031125973910093307,-0.12128942459821701,0.009405124001204967,-0.3897504210472107,0.32848426699638367,-0.35051077604293823,-0.25024715065956116,0.09077504277229309,0.01621311902999878,-0.12787894904613495,-0.24373573064804077,-0.16416431963443756,0.10706814378499985,-0.3593943119049072,-0.01768975518643856,-0.14981940388679504,0.08390047401189804,0.28582653403282166,-0.3077186644077301,-0.1508859246969223,0.41863924264907837,0.44262316823005676,-0.052603039890527725,-0.19910134375095367,0.15072350203990936,-0.2958272397518158,0.2971822917461395,-0.4771285951137543,0.5139728784561157,-0.5764203667640686,0.0260575320571661,0.1306029111146927,-0.09468477964401245,-0.1325407326221466,-0.32298150658607483,0.11706484109163284,-0.3977697193622589,0.1912710964679718,-0.29395821690559387,-0.2566866874694824
forte_family.prissie,-0.09919138252735138,0.0453985296189785,0.07770372927188873,-0.21353474259376526,-0.28170284628868103,-0.4324479401111603,-0.05342372506856918,0.08333861082792282,0.1468878835439682,-0.37542614340782166,-0.44957855343818665,-0.23823243379592896,-0.23294615745544434,-0.030078260228037834,-0.14149914681911469,0.008913530968129635,0.1299991011619568,0.01827920787036419,0.09904640167951584,-0.19972747564315796,0.142026886343956,0.1032211035490036,-0.24574397504329681,-0.1271619349718094,0.45732221007347107,-0.15832801163196564,0.37828880548477173,-0.4915424883365631,0.09400341659784317,-0.4421378970146179,0.026729874312877655,0.14745086431503296,-0.12176860123872757,0.04385397583246231,-0.05803923308849335,0.13508227467536926,-0.4184553623199463,0.03583972156047821,-0.2945621609687805,0.09241116791963577
forte_family.rachel,-0.22117926180362701,-0.2810834050178528,0.2672139108181,-0.08049655705690384,-0.446066677570343,-0.3216491639614105,-0.20664408802986145,0.4023343026638031,0.2698236405849457,-0.11108861118555069,0.08588194102048874,0.2081841677427292,0.6122051477432251,-0.3329430818557739,-0.27220314741134644,0.08371302485466003,-0.034047964960336685,0.402823269367218,-0.38920339941978455,-0.1882743239402771,0.43219876289367676,0.18093560636043549,-0.3209473788738251,-0.3039937913417816,0.08115566521883011,-0.3850060999393463,0.3721431493759155,-0.6233664155006409,0.34599238634109497,-0.13462628424167633,0.2811579406261444,0.1860853135585785,0.1335977464914322,-0.21746397018432617,-0.2009170949459076,0.2889672815799713,-0.4288247227668762,0.16481192409992218,-0.4443453550338745,-0.20682470500469208
forte_family.ray,-0.1405343860387802,-0.04932118207216263,-0.06317773461341858,-0.12787863612174988,0.43790462613105774,-0.46722379326820374,-0.26847049593925476,0.1387283205986023,0.4687455892562866,-0.27699270844459534,-0.32164493203163147,-0.33425065875053406,-0.15603996813297272,-0.33283811807632446,0.126477912068367,-0.12254270911216736,-0.24537265300750732,-0.05597968399524689,-0.09824148565530777,-0.3937032222747803,0.3152807950973511,-0.0022813412360846996,0.049967605620622635,-0.43144556879997253,0.17906084656715393,-0.3695582151412964,0.36878159642219543,-0.44828858971595764,0.3365173637866974,0.2227548360824585,-0.15957039594650269,-0.17112892866134644,-0.31298938393592834,0.17292577028274536,-0.16488519310951233,0.2766301929950714,0.1330866813659668,0.29514551162719727,-0.08996576815843582,0.007830804213881493
forte_family.regina,-0.3110763728618622,-0.057443857192993164,0.20493288338184357,-0.2549509108066559,0.3749418258666992,-0.32908329367637634,-0.3140052258968353,0.10001133382320404,0.44721466302871704,0.1623343676328659,-0.4028509855270386,-0.38377365469932556,0.23690153658390045,-0.3619709312915802,-0.19698922336101532,-0.05101114511489868,-0.1281459778547287,0.05337599664926529,-0.3722936809062958,-0.19516193866729736,0.3769734501838684,-0.209507554769516,-0.34966856241226196,-0.12061622738838196,0.14014647901058197,-0.3899427652359009,0.26051443815231323,-0.4567966163158417,0.29746466875076294,-0.25534945726394653,-0.19015327095985413,0.0043238261714577675,0.17874319851398468,-0.024358468130230904,0.04845055937767029,0.12513545155525208,-0.23410871624946594,0.23955599963665009,-0.22449642419815063,-0.24793991446495056
forte_family.steve,-0.3985782265663147,-0.31840741634368896,0.38744527101516724,-0.4541137218475342,0.37433892488479614,-0.4225025773048401,-0.09006937593221664,-0.21899785101413727,0.009648183360695839,-0.02345466986298561,-0.461495041847229,-0.3663780093193054,0.23027855157852173,-0.2619822919368744,0.0011494643986225128,-0.20716242492198944,-0.2818838953971863,0.2287972867488861,-0.25809645652770996,-0.15508359670639038,0.5197280049324036,-0.10215739905834198,-0.22840484976768494,-0.17667250335216522,0.43689021468162537,-0.0008176446426659822,0.22918829321861267,-0.21948805451393127,0.209194153547287,0.07086707651615143,-0.17199887335300446,0.1879522204399109,0.0054880003444850445,-0.1005241721868515,-0.36145758628845215,0.0997471958398819,-0.2614310383796692,0.3064754605293274,-0.3623998463153839,-0.2774101197719574
forte_family.susan,-0.30309826135635376,-0.30468201637268066,0.37007761001586914,-0.3387371003627777,0.5033150315284729,-0.4425688087940216,0.22951287031173706,-0.10417115688323975,0.2946009337902069,-0.03706091642379761,-0.26954805850982666,-0.32923048734664917,0.03333189710974693,-0.37396037578582764,-0.08669024705886841,-0.049382857978343964,-0.39078378677368164,0.25553712248802185,-0.2907976806163788,-0.2925163209438324,0.44773542881011963,-0.10862860828638077,-0.05961225926876068,-0.1681402027606964,0.3574542701244354,-0.006279491353780031,0.21582171320915222,-0.4914059042930603,0.03959206864237785,-0.2945043742656708,-0.2114708572626114,0.19449470937252045,-0.06851226091384888,-0.04263271391391754,-0.08278685063123703,0.18600618839263916,-0.14623454213142395,0.14076705276966095,-0.22614596784114838,-0.45569032430648804
forte_family.terri,-0.04162926226854324,-0.35745513439178467,0.33170267939567566,-0.07549998164176941,0.07311660051345825,-0.04139949008822441,-0.09895837306976318,-0.1040736734867096,0.466580867767334,-0.11478614807128906,-0.3882470428943634,-0.38014137744903564,0.03854932263493538,-0.4673154652118683,-0.19106623530387878,-0.19693168997764587,-0.28210771083831787,0.2665473222732544,-0.27877092361450195,-0.18647566437721252,0.39311251044273376,-0.06609335541725159,-0.0007305233157239854,-0.11384936422109604,0.10527970641851425,-0.2711494565010071,0.11290782690048218,-0.15107455849647522,0.2097417414188385,-0.08872149884700775,-0.1754256635904312,0.05196889117360115,0.07503928989171982,-0.21283140778541565,0.06934380531311035,0.04643767327070236,-0.22888042032718658,0.3602888882160187,-0.478976845741272,-0.1329931616783142
forte_family.terry,-0.2754831314086914,-0.4477568566799164,0.3232725262641907,-0.18959113955497742,0.1392328292131424,0.028559455648064613,-0.17751777172088623,0.11245059221982956,0.4485447406768799,-0.17031042277812958,-0.42110368609428406,-0.007528941612690687,0.25137820839881897,-0.534561038017273,0.2168671041727066,0.034496065229177475,-0.44003674387931824,-0.07620137929916382,-0.2245984822511673,-0.5687767267227173,0.40209874510765076,-0.06563965231180191,0.03457771986722946,-0.34201017022132874,0.015576927922666073,-0.34317079186439514,0.014703989028930664,0.10497194528579712,0.19796520471572876,-0.1414555013179779,-0.20647911727428436,0.026933126151561737,-0.2631218731403351,-0.19726639986038208,-0.11927526444196701,0.16463203728199005,0.13460016250610352,0.451654314994812,-0.3522346317768097,-0.026629231870174408
forte_family.umo,-0.2582906484603882,-0.11874455213546753,0.33980855345726013,0.24052946269512177,0.06213312968611717,-0.0655515193939209,-0.0861925333738327,0.11248327046632767,0.5179076790809631,-0.20437754690647125,0.15908780694007874,-0.35373759269714355,-0.12934720516204834,-0.029420604929327965,-0.35044175386428833,-0.276946097612381,-0.2621322572231293,0.04041757062077522,0.38902902603149414,-0.5237085223197937,0.37941810488700867,0.2545827329158783,-0.3057858645915985,-0.33576077222824097,0.29116305708885193,-0.3702804446220398,0.08296391367912292,-0.31023597717285156,0.34490758180618286,-0.057513415813446045,-0.1278039813041687,0.2371508926153183,-0.15258149802684784,-0.31853777170181274,-0.35757511854171753,0.5466169118881226,-0.12269701063632965,0.07505512982606888,-0.18794627487659454,0.2223435938358307
forte_family.walt,-0.12071379274129868,-0.13465529680252075,0.22771787643432617,-0.20907427370548248,-0.0583951473236084,-0.2100544571876526,-0.01247984729707241,0.035671867430210114,0.3702242076396942,-0.474203497171402,-0.15340526401996613,-0.23490580916404724,-0.04350151866674423,-0.1893271803855896,0.04103337228298187,-0.19926193356513977,-0.41760605573654175,0.04971940070390701,-0.2663963735103607,-0.14609350264072418,0.5209550857543945,0.40038061141967773,-0.4041256904602051,-0.13912028074264526,0.3048399090766907,-0.1889781355857849,0.11132258921861649,-0.23463937640190125,0.3447551727294922,-0.3521628677845001,-0.40860608220100403,0.010370341129601002,0.09597576409578323,-0.13003851473331451,-0.08661362528800964,0.07018036395311356,-0.5088576078414917,0.2481337934732437,-0.1657865345478058,-0.12428322434425354
forte_family.wendy,-0.17506533861160278,0.0798167958855629,0.26605838537216187,-0.47655022144317627,-0.21012349426746368,-0.09989850968122482,-0.06298420578241348,-0.03488428145647049,0.3844587206840515,-0.45430856943130493,0.032468605786561966,-0.3149563670158386,0.44007495045661926,-0.04073526710271835,-0.24635809659957886,-0.17005211114883423,-0.2844434082508087,0.005700884852558374,0.2525200843811035,0.005900746677070856,0.3232141137123108,0.05870912969112396,-0.15992797911167145,-0.017690077424049377,0.370939165353775,-0.37050580978393555,0.0695473849773407,-0.32344701886177063,0.27813827991485596,-0.39915505051612854,-0.026130054146051407,0.19072474539279938,-0.14396964013576508,-0.435695081949234,0.026251021772623062,0.3810942769050598,-0.4654389023780823,0.4128289818763733,-0.1714758574962616,-0.20059427618980408
forte_family.married,0.39791348576545715,0.8463671803474426,-0.08310601115226746,0.27316489815711975,-0.01206941157579422,-0.3861938416957855,-0.19148942828178406,0.06380024552345276,0.0995418131351471,-0.14664605259895325,-0.2858923375606537,0.08945946395397186,-0.6185251474380493,-0.10189281404018402,0.20258592069149017,0.33185210824012756,0.023639380931854248,0.4326607584953308,0.34116485714912415,-0.185807004570961,0.2716914713382721,0.5876485705375671,0.12606669962406158,-0.16106514632701874,-0.0727553740143776,0.36048537492752075,-0.2006300538778305,-0.7794212102890015,-0.2348819077014923,0.21285021305084229,0.03575562685728073,0.5906383991241455,0.2280581295490265,0.16232073307037354,-0.08258438855409622,0.20373977720737457,0.1827096939086914,0.0026375548914074898,0.39098361134529114,0.3163577616214752
forte_family.parent,-0.1355016976594925,0.08231499046087265,0.12458531558513641,0.08674711734056473,0.08985745906829834,-0.4720427095890045,0.8617889285087585,-0.16365115344524384,-0.3319518566131592,-0.3482041656970978,-0.48923903703689575,0.08035429567098618,0.46179142594337463,0.22375436127185822,-0.0026727193035185337,-0.28204870223999023,-0.08376242965459824,0.26881465315818787,0.3327717185020447,0.2251242995262146,-0.1693466752767563,0.16276434063911438,0.6549537181854248,0.01898297481238842,-0.29088500142097473,-0.43603450059890747,0.22198309004306793,-0.49062013626098633,0.24844415485858917,0.14172042906284332,0.2533198893070221,-0.17427469789981842,-0.09967653453350067,-0.036259446293115616,0.10598251968622208,0.05318601801991463,0.5188508629798889,-0.5790895223617554,-0.46375274658203125,0.18440905213356018
forte_family.sibling,0.6309658885002136,-0.3605976402759552,0.16206806898117065,-0.030345438048243523,-0.10347716510295868,0.6557161211967468,-0.5637816786766052,-0.3241330683231354,0.1646432876586914,0.3181423246860504,0.26810595393180847,0.35634469985961914,-0.5415748357772827,-0.09080763906240463,-0.1266539990901947,0.2568429410457611,0.10394086688756943,-0.33417296409606934,0.5933507680892944,-0.7490299940109253,-0.5091972947120667,-0.08045769482851028,0.011402547359466553,0.4851684868335724,-0.07975966483354568,0.1624191254377365,-0.17276515066623688,-0.33983588218688965,0.17134270071983337,0.0822174921631813,0.2169744074344635,-0.0012944444315508008,0.05722903460264206,0.20710571110248566,0.16182687878608704,-0.6228458285331726,-0.35969337821006775,-0.3581627607345581,0.1412254273891449,-0.5744679570198059
