,0,1,2,3,4,5,6,7,8,9,10,11,12,13,14,15,16,17,18,19,20,21,22,23,24,25,26,27,28,29,30,31,32,33,34,35,36,37,38,39
mutagenesis.act,0.021658702,0.34806675,-0.3129392,0.07197848,0.050462086,0.39261672,0.07906795,-0.23546176,0.25866753,0.42751706,-0.17648578,0.09194141,0.082426496,0.01384953,0.24108367,-0.13241997,0.18796268,0.24987262,0.42369232,0.34597874,-0.0751193,-0.43695426,0.025287809,0.35186762,-0.08930473,0.638401,-0.2376586,-0.10674303,0.29800633,-0.118165396,-0.062394507,-0.13005489,0.09872008,-0.058463365,-0.021168407,0.5059303,-0.42046028,0.31259352,0.18571407,0.21467145
mutagenesis.act_reverse,0.42285845,-0.5147647,0.28039247,-0.7907194,-0.14139618,0.04690743,-0.07253692,0.63995355,0.5671796,-0.7591682,-0.39031056,0.4381679,0.3624978,-0.5999643,-0.52357966,0.1279319,0.3429083,0.49425307,-0.37445924,-0.85674834,0.3612897,0.13863808,-0.004578113,-0.385181,-0.0052523226,-0.9199493,-0.30709055,-0.31603384,-0.90857136,-0.5167373,0.018247679,-0.25151017,0.3748784,-0.6618431,0.9183787,-0.4898999,-0.4620095,0.35595283,-0.48397824,-0.8130753
mutagenesis.charge,0.26971844,-0.43678376,0.3028743,-0.30630288,0.38282675,0.21548812,-0.072248735,0.48887548,-0.82361835,-0.46276292,0.57079566,0.30436483,0.13418823,-0.6982413,-0.54849494,0.00021923246,-0.7747442,0.2371623,-0.69336593,0.32703352,-0.94038343,0.33956483,0.09567634,-0.21852417,-0.35950008,0.32773262,0.58631974,-0.09222641,-0.47502336,-0.089724,-0.019163642,-0.06762499,0.15563616,-0.24469046,-0.25533372,0.32443243,0.70841104,0.2237989,-0.53928244,0.48026413
mutagenesis.charge_reverse,0.41145334,0.2982386,-0.47017598,-0.22370271,0.39154655,0.5946743,0.0019937996,0.49190685,0.12110298,0.18987656,-0.5497761,0.18714856,0.15357928,-0.29531065,0.53927,0.09180928,0.043766953,0.2838354,0.39000538,0.02158327,0.29556662,0.1975453,0.9495259,0.11875587,0.6747829,0.21425611,0.40995514,-0.20354728,0.046115596,-0.22038461,0.026311234,-0.03827101,0.3232859,0.296299,0.6854387,-0.5315188,0.5898916,-0.61703974,-0.040802166,-0.6290517
mutagenesis.hasAtom,0.52550906,0.10416606,-0.18787827,0.015920568,0.6726444,0.6253052,0.22533906,-0.11943612,0.05689791,0.17210005,-0.5340654,-0.034763526,-0.020342242,-0.04096625,0.33955333,0.27724436,-0.24578746,0.020600753,0.27267045,0.1405211,0.6097833,-0.16119,0.14113882,0.10337475,0.022045173,0.25997603,-0.18600789,0.014305187,0.19353716,0.09197245,-0.19518429,0.18415162,0.030467927,0.057347283,0.18973559,0.4524017,-0.03287205,0.10306608,0.041922465,0.08859155
mutagenesis.hasAtom_reverse,0.1412724,-0.47865388,0.3629657,-0.5430644,0.6368454,-0.005093964,-0.09948683,0.46154863,-0.6168325,-0.38861537,0.3744606,0.3856547,0.18117003,-0.39613533,-0.33389857,-0.039238665,-1.025635,0.09541865,-0.12996326,0.466878,-0.5425602,0.5757821,-0.29010355,-0.46550536,-0.0015748177,0.1694157,0.48763925,-0.39332014,-0.62915933,-0.15742773,-0.099306785,-0.18188618,0.1842327,-0.6149822,0.1314074,0.3372241,0.5196571,0.26847535,-0.41994965,0.18865909
mutagenesis.hasBond,-0.34728464,0.1734865,-0.108647436,0.4717393,-0.032107305,0.12949711,0.11341262,-0.17920454,0.40536696,0.17243205,-0.0678559,0.07368482,-0.2334039,0.26570797,-0.06950023,-0.2231448,-0.08751398,-0.015900567,0.40603545,0.17453249,-0.24459018,-0.2602432,0.19694036,0.46777588,-0.1178674,-0.042854644,-0.045250908,0.15530556,0.50899833,-0.06591776,0.10909198,0.117277525,0.12673597,-0.5218624,0.33411914,0.23867543,-0.25437543,-0.007849391,0.37306446,0.26294655
mutagenesis.hasBond_reverse,-0.81850016,0.47808743,0.5586827,0.57684875,-0.48014146,-0.61453885,1.1125263,-0.49121562,0.6191425,-0.2679997,0.25208107,-1.0823518,-0.9969734,0.36316723,0.43189123,-0.78309757,0.35918477,-0.8116222,0.689678,-0.63379645,0.345333,-0.6399588,1.1178442,0.76879996,0.99743843,-0.69515955,-0.307124,1.1234378,0.6349305,1.0606459,0.90873593,0.9576215,-0.6652236,0.56473255,-0.1627236,-0.44429475,-0.055711392,-0.3735711,0.3968221,-0.6829473
mutagenesis.hasFifeExamplesOfAcenthrylenes,0.25155932,0.60254174,-0.7713858,0.19720773,0.11597594,0.54042435,0.24554016,-0.60700995,0.019664979,0.48969522,-0.30512673,0.17827766,0.08625628,0.18391871,0.49460894,0.42051685,0.3468125,0.16056871,0.3962512,0.24296086,-0.22223753,-0.59863406,-7.793206e-05,0.25678107,0.030833462,0.40288448,-0.24493417,-0.30853915,0.23984258,-0.052435365,-0.14850618,-0.3048771,0.6171275,-0.23167032,0.3707826,0.6412772,-0.44222036,0.06051613,-0.013056663,0.14925714
mutagenesis.hasFifeExamplesOfAcenthrylenes_reverse,0.07499735,0.083088994,-0.35261416,0.08311643,-0.099761434,-0.063592955,0.3584284,-0.31222907,-0.5300012,-0.4669148,0.22447781,-0.2979835,-0.431984,0.26536426,-0.13423505,-0.31437492,-0.08096008,-0.12138739,0.18413277,0.16709575,-0.500549,0.04564843,0.3039245,-0.31200594,0.027680906,-0.11512803,0.10035152,0.28222218,-0.035619512,-0.34758872,-0.5968899,-0.26041815,-0.29946092,0.19844386,-0.4747586,0.11146037,0.06688846,-0.29149726,-0.98446816,-0.60022086
mutagenesis.hasStructure,0.07141868,0.21889694,-0.53771687,0.41380662,-0.14244089,0.30554733,0.1616697,-0.13379298,0.28590894,0.19855121,-0.014564427,0.08844832,-0.086538926,-0.040791806,0.20097783,-0.13005547,0.04894511,0.132572,0.44435102,0.16850631,-0.00589359,-0.5742996,0.04355083,0.22763637,0.23081559,0.18051457,-0.19256306,-0.17285177,0.20020923,-0.12026049,-0.066243924,0.0005210269,0.05892681,-0.0008634253,-0.33993503,0.1264451,-0.09721258,0.15538804,0.22919081,0.12574685
mutagenesis.hasStructure_reverse,-0.8287971,-0.7065347,-0.6164147,0.7998209,-0.96185297,0.369364,-0.43639994,0.58885086,0.30358076,0.869037,-0.33594567,0.26247832,0.42253998,0.6155178,-0.80532897,-1.0322477,0.40258652,-1.0285225,-0.49966446,0.8562665,0.4813031,0.5332613,-0.40851977,-0.5872189,-0.29386044,0.4736447,0.7624811,0.89097613,0.47363287,0.98072237,-0.6144841,1.130231,0.314265,-0.699521,0.70003325,0.58913136,-0.17560777,0.55608815,0.721804,0.7234856
mutagenesis.hasThreeOrMoreFusedRings,0.31902978,0.5960357,-0.85585225,0.19272311,0.13129708,0.47405195,0.22403692,-0.692555,-0.060003556,0.42119634,-0.24350688,0.10873234,-0.05327542,0.28742585,0.3686347,0.21670268,0.13348104,0.098635375,0.34460032,0.18383004,-0.04439322,-0.5637046,0.0001519712,0.27503917,-0.15942785,0.21317235,-0.18177275,-0.35287046,0.19397074,-0.07590167,-0.22088607,-0.108716264,0.62425953,-0.18676856,0.42185873,0.6039061,-0.28046483,0.21899301,-0.031095425,0.13748027
mutagenesis.hasThreeOrMoreFusedRings_reverse,0.28158712,0.26092026,-0.3150374,0.07794015,-0.23456664,0.1179338,0.10342653,-0.14455667,-0.3533743,-0.07070274,0.20244981,-0.24917486,-0.21116327,0.16164829,-0.111727044,-0.21511632,-0.07146057,-0.29641694,0.12396779,0.021250699,-0.48506504,0.029497772,0.47109416,-0.17800242,0.2689867,-0.261295,0.049835406,0.27034888,0.07256781,0.06352298,-0.30099213,-0.29450142,-0.35703632,0.09208233,-0.18514666,-0.04572083,0.33431125,-0.28948867,-0.77241266,-0.46094722
mutagenesis.inBond,-0.8429052,0.3923741,0.46607435,0.09290499,-0.5664979,-0.9641747,1.1134955,-0.38816848,0.30524346,-0.4423093,0.74627024,-0.93441266,-1.0217636,0.12760855,0.4090434,-1.0748656,0.041723914,-0.9073505,0.57836264,-0.69307464,0.53536314,-0.40661293,1.1037943,0.3305108,0.92330056,-1.0315819,-0.3760041,0.8058098,0.3896397,0.8160252,1.405992,0.82224524,-0.74152815,0.30388165,-0.2577391,-0.59603405,-0.3239954,-0.57978326,0.22813717,-0.72383684
mutagenesis.inBond_reverse,-0.11063109,-0.61158633,0.38804987,-0.6140097,0.17015396,0.37793627,-0.07791183,0.418851,-0.65803444,-0.11021003,0.13012362,0.20770866,0.066794805,-0.7597652,-0.4434997,-0.028785143,-0.8311051,0.21974292,-0.5842226,0.3170622,-0.63583916,0.5268897,0.0643087,-0.39207003,-0.20645101,0.040005434,0.5420907,-0.07165909,-0.5790304,-0.1326874,0.054059036,-0.18997958,0.26249114,-0.50010467,0.2060456,0.35104156,0.7033863,0.41369596,-0.63650775,0.2582645
mutagenesis.logp,0.09257347,0.27752298,-0.30912563,0.0904829,-0.026491564,0.44123548,0.05440008,-0.2678163,0.26389435,0.47962016,-0.14110082,0.113985606,0.026906474,-0.05882024,0.2544353,-0.13098997,0.2422961,0.24802876,0.40906295,0.41610813,-0.034244448,-0.42204255,0.085857265,0.38144627,-0.1407946,0.7354975,-0.2182983,-0.07823914,0.33478162,-0.1821466,-0.1515518,-0.11287044,0.17849272,-0.05306267,0.07196563,0.5257981,-0.4215204,0.27914435,0.15298028,0.24909241
mutagenesis.logp_reverse,0.44385254,-0.50349426,0.38842732,-0.66051775,-0.30283898,-0.30718568,-0.083528765,0.5107013,0.90051246,-0.6640793,-0.40898278,0.26763713,0.32939544,-0.32945555,-0.51304954,0.19409676,0.33241025,0.38865748,-0.43356547,-0.8967511,0.37899822,0.3686855,-0.22200705,-0.4510957,0.11428293,-0.8678365,-0.4482053,0.01177055,-0.84388554,-0.12041068,-0.14509921,-0.2829261,0.4879433,-0.6469435,0.7887165,-0.40147313,-0.44558543,0.38870302,-0.40125287,-0.96425
mutagenesis.lumo,0.024664875,0.19518398,-0.4637949,0.16348173,0.060149193,0.2632869,-0.020341728,-0.28055862,0.10623724,0.271343,-0.20693696,0.26363495,0.0762995,0.06473205,0.24059567,-0.18111198,-0.05158939,0.17200978,0.34584072,0.3779238,0.107298195,-0.38386762,-0.022173578,0.2745657,0.07605309,0.6632899,-0.2815136,-0.14645064,0.33547428,-0.24379829,-0.22200634,-0.019640876,0.09990845,-0.20172918,0.003106237,0.45436114,-0.37437558,0.3136038,0.14982122,0.2082699
mutagenesis.lumo_reverse,0.2294551,-0.6020484,-0.685183,-0.7914751,-1.0587232,-0.94850445,1.2814282,0.7896992,-0.3042102,1.0537986,-0.3841589,-1.0452831,0.43133014,0.5410451,0.777788,0.39184397,0.44637662,0.56087196,0.27850387,-1.2061204,0.5068457,-0.77666885,-0.40232134,-0.9776403,0.038501285,-1.1344413,-0.5737381,-0.5539064,-1.112198,0.33407712,-0.5259307,1.0248109,-0.5625117,0.5744204,1.0522602,0.6081976,0.6257549,0.51655805,-0.9972849,0.32855362
